svm_type epsilon_svr
kernel_type rbf
gamma 0.5
nr_class 2
total_sv 42
rho 23.9025
SV
8192 1:0.466986 2:0.815845 3:0.87386667 4:0.90794167 
-8192 1:0.446836 2:0.799004 3:0.68488 4:0.91095833 
-8192 1:0.399853 2:0.824029 3:0.60414 4:0.91666667 
6187.973533276328 1:0.333552 2:0.844057 3:0.53921667 4:0.91666667 
-8192 1:0.378217 2:0.797545 3:0.46798 4:0.91666667 
8192 1:0.319224 2:0.811919 3:0.40185333 4:0.91666667 
8192 1:0.450795 2:0.787408 3:0.7312 4:0.89501167 
8192 1:0.351339 2:0.787873 3:0.72988667 4:0.91666667 
-6187.037712177471 1:0.422707 2:0.764708 3:0.51663 4:0.89969667 
8192 1:0.34819 2:0.782946 3:0.42343333 4:0.91666667 
-8192 1:0.257941 2:0.788923 3:0.39304 4:0.91666667 
-4224.706747511991 1:0.446581 2:0.720976 3:0.47996333 4:0.826795 
-8192 1:0.393286 2:0.742738 3:0.38389333 4:0.90705833 
-8192 1:0.532729 2:0.679855 3:0.76265667 4:0.70372667 
8192 1:0.451332 2:0.687873 3:0.72989 4:0.78206833 
-7718.909560204644 1:0.35134 2:0.687878 3:0.72987667 4:0.88928833 
-8192 1:0.263686 2:0.687759 3:0.74203667 4:0.91666667 
8192 1:0.351335 2:0.687868 3:0.39661333 4:0.889295 
8192 1:0.402284 2:0.628534 3:0.32088267 4:0.75050667 
-6576.440734374269 1:0.30853 2:0.639227 3:0.0305567 4:0.884005 
-8192 1:0.550506 2:0.587697 3:0.73143 4:0.57422167 
-4733.240415408627 1:0.451337 2:0.587876 3:0.72987667 4:0.64477 
8192 1:0.45088 2:0.587757 3:0.39920333 4:0.64496167 
5378.196665969559 1:0.351339 2:0.587868 3:0.39656333 4:0.74189167 
8192 1:0.285214 2:0.609293 3:0.40045333 4:0.86307833 
8192 1:0.416382 2:0.550634 3:0.283983 4:0.612235 
8192 1:0.451336 2:0.487876 3:0.72988 4:0.48208167 
8192 1:0.351344 2:0.487878 3:0.72987333 4:0.55519833 
-8192 1:0.518557 2:0.487568 3:0.50607 4:0.44587667 
-8192 1:0.351342 2:0.487873 3:0.39655667 4:0.55539 
-7496.697762574162 1:0.324655 2:0.493315 3:0.40464333 4:0.59134333 
5962.501306296374 1:0.481338 2:0.484036 3:0.36982333 4:0.45889333 
8192 1:0.451335 2:0.3878795 3:0.72988333 4:0.2982185 
-5156.815850635611 1:0.351341 2:0.3878801 3:0.72987 4:0.33148017 
-2394.208400878927 1:0.26438 2:0.387126 3:0.74147 4:0.37351 
-8192 1:0.513491 2:0.400095 3:0.52032333 4:0.304479 
-8192 1:0.421031 2:0.3989666 3:0.272461 4:0.32974733 
8192 1:0.525768 2:0.3127705 3:0.77984 4:0.154853 
-8192 1:0.452597 2:0.30002648 3:0.72807 4:0.1274095 
728.1848186040554 1:0.261714 2:0.30477006 3:0.72741 4:0.11621133 
8192 1:0.464536 2:0.3490706 3:0.41596333 4:0.2223865 
1655.200859619384 1:0.408456 2:0.3281549 3:0.31045867 4:0.18444367 
