svm_type epsilon_svr
kernel_type rbf
gamma 4
nr_class 2
total_sv 67
rho -265.802
SV
4597.659396369868 1:0.466986 2:0.815845 3:0.87386667 4:0.90794167 
4783.952859697239 1:0.446836 2:0.799004 3:0.68488 4:0.91095833 
16384 1:0.399853 2:0.824029 3:0.60414 4:0.91666667 
-16384 1:0.423945 2:0.78016 3:0.54518 4:0.91479667 
13053.65660090292 1:0.378217 2:0.797545 3:0.46798 4:0.91666667 
-16384 1:0.319224 2:0.811919 3:0.40185333 4:0.91666667 
-11649.33445292926 1:0.24919 2:0.819815 3:0.3653 4:0.91666667 
-2182.026011431572 1:0.501682 2:0.75587 3:0.8163 4:0.81544667 
-16384 1:0.450795 2:0.787408 3:0.7312 4:0.89501167 
-16384 1:0.351339 2:0.787873 3:0.72988667 4:0.91666667 
5274.628370849642 1:0.267221 2:0.787526 3:0.74073667 4:0.91666667 
-16384 1:0.474877 2:0.739015 3:0.61849333 4:0.82089 
16062.73731090586 1:0.422707 2:0.764708 3:0.51663 4:0.89969667 
-3259.385768011342 1:0.34819 2:0.782946 3:0.42343333 4:0.91666667 
16384 1:0.257941 2:0.788923 3:0.39304 4:0.91666667 
6809.751862880801 1:0.446581 2:0.720976 3:0.47996333 4:0.826795 
-13261.80060327849 1:0.393286 2:0.742738 3:0.38389333 4:0.90705833 
16384 1:0.328866 2:0.754862 3:0.301911 4:0.91666667 
8384.134612971029 1:0.250612 2:0.760176 3:0.26504867 4:0.91666667 
16384 1:0.532729 2:0.679855 3:0.76265667 4:0.70372667 
13241.55907280421 1:0.451332 2:0.687873 3:0.72989 4:0.78206833 
16384 1:0.35134 2:0.687878 3:0.72987667 4:0.88928833 
-360.1758769004542 1:0.263686 2:0.687759 3:0.74203667 4:0.91666667 
-4192.855517053024 1:0.498152 2:0.66501 3:0.561 4:0.71265167 
16384 1:0.442198 2:0.682905 3:0.44067 4:0.784455 
-4593.625380940623 1:0.351335 2:0.687868 3:0.39661333 4:0.889295 
-16384 1:0.265299 2:0.688233 3:0.39837333 4:0.91666667 
-16384 1:0.462013 2:0.648432 3:0.39849667 4:0.72167167 
-16384 1:0.402284 2:0.628534 3:0.32088267 4:0.75050667 
-1292.975193995693 1:0.30853 2:0.639227 3:0.0305567 4:0.884005 
-5379.078568208739 1:0.251954 2:0.681355 3:0.201502 4:0.91666667 
-16384 1:0.550506 2:0.587697 3:0.73143 4:0.57422167 
-16384 1:0.451337 2:0.587876 3:0.72987667 4:0.64477 
-10705.36237366565 1:0.351342 2:0.587869 3:0.72987 4:0.74183833 
-4807.982965124911 1:0.280883 2:0.60653 3:0.77592667 4:0.86510167 
16384 1:0.513189 2:0.579488 3:0.52109333 4:0.58678 
4194.196851208345 1:0.45088 2:0.587757 3:0.39920333 4:0.64496167 
-1878.750126972102 1:0.351339 2:0.587868 3:0.39656333 4:0.74189167 
13841.46296045715 1:0.285214 2:0.609293 3:0.40045333 4:0.86307833 
16384 1:0.469817 2:0.564748 3:0.32971233 4:0.59511333 
-4111.244874303153 1:0.416382 2:0.550634 3:0.283983 4:0.612235 
8407.394265783378 1:0.341633 2:0.582763 3:0.20809467 4:0.744915 
3363.032269102558 1:0.550558 2:0.487886 3:0.73145667 4:0.43192833 
16384 1:0.451336 2:0.487876 3:0.72988 4:0.48208167 
2321.954998985332 1:0.351344 2:0.487878 3:0.72987333 4:0.55519833 
6400.123988286894 1:0.268048 2:0.487469 3:0.73562333 4:0.64333333 
-6611.105493761169 1:0.518557 2:0.487568 3:0.50607 4:0.44587667 
3075.481911116783 1:0.451128 2:0.487883 3:0.39781333 4:0.48224833 
7282.502370527532 1:0.351342 2:0.487873 3:0.39655667 4:0.55539 
-11414.04131496812 1:0.324655 2:0.493315 3:0.40464333 4:0.59134333 
-16384 1:0.481338 2:0.484036 3:0.36982333 4:0.45889333 
12609.68863692764 1:0.550558 2:0.3881338 3:0.73148333 4:0.27664867 
-16384 1:0.451335 2:0.3878795 3:0.72988333 4:0.2982185 
5696.954593900165 1:0.351341 2:0.3878801 3:0.72987 4:0.33148017 
-6430.75811209656 1:0.26438 2:0.387126 3:0.74147 4:0.37351 
-16384 1:0.513491 2:0.400095 3:0.52032333 4:0.304479 
447.3759462502869 1:0.450874 2:0.388065 3:0.3991 4:0.2987315 
4637.77365681042 1:0.351338 2:0.3878794 3:0.39657 4:0.33207083 
13361.24590957515 1:0.477882 2:0.409213 3:0.38154333 4:0.3303635 
-7790.282233204292 1:0.421031 2:0.3989666 3:0.272461 4:0.32974733 
-11342.43998137936 1:0.525768 2:0.3127705 3:0.77984 4:0.154853 
12262.32667628714 1:0.452597 2:0.30002648 3:0.72807 4:0.1274095 
-235.6027370010507 1:0.261714 2:0.30477006 3:0.72741 4:0.11621133 
5736.156967026475 1:0.495976 2:0.3329786 3:0.56298 4:0.1904665 
-16384 1:0.4399 2:0.311891 3:0.44993333 4:0.15032173 
16384 1:0.464536 2:0.3490706 3:0.41596333 4:0.2223865 
1189.075495598851 1:0.408456 2:0.3281549 3:0.31045867 4:0.18444367 
