svm_type epsilon_svr
kernel_type rbf
gamma 1
nr_class 2
total_sv 136
rho -300.419
SV
3105.937719577799 1:0.62975 2:0.637318 3:0.9102675 4:0.78232111 
-8192 1:0.42975 2:0.637318 3:0.9102675 4:0.87939222 
8192 1:0.32975 2:0.637318 3:0.9102675 4:0.95305444 
-2258.872502552465 1:0.22975 2:0.637318 3:0.9102675 4:1 
-8192 1:0.72975 2:0.637318 3:0.660265 4:0.74944778 
8192 1:0.62975 2:0.637318 3:0.6602625 4:0.78230778 
8192 1:0.529751 2:0.637317 3:0.6602625 4:0.82435333 
-8192 1:0.42975 2:0.637318 3:0.6602675 4:0.87935667 
8192 1:0.32975 2:0.637318 3:0.6602675 4:0.95298222 
8192 1:0.22975 2:0.637318 3:0.660265 4:1 
-7919.408485812322 1:0.72975 2:0.637318 3:0.4102675 4:0.74945778 
8192 1:0.62975 2:0.637318 3:0.4102675 4:0.78231 
-8192 1:0.52975 2:0.637318 3:0.4102675 4:0.82435 
8192 1:0.42975 2:0.637318 3:0.410265 4:0.87932667 
-8192 1:0.32975 2:0.637318 3:0.4102675 4:0.95300444 
-6099.904768232546 1:0.22975 2:0.637319 3:0.4102675 4:1 
8192 1:0.734553 2:0.629293 3:0.18982775 4:0.74201111 
8192 1:0.62975 2:0.637318 3:0.1602675 4:0.78232556 
-8192 1:0.52975 2:0.637318 3:0.1602675 4:0.82433778 
24.27084630723236 1:0.42975 2:0.637319 3:0.1602675 4:0.87931556 
-1620.275772469971 1:0.329751 2:0.63732 3:0.16026575 4:0.95287 
8192 1:0.229749 2:0.637321 3:0.1602955 4:1 
8192 1:0.72975 2:0.537318 3:0.9102675 4:0.67557222 
-8192 1:0.62975 2:0.537318 3:0.9102675 4:0.70024556 
-2816.175438416999 1:0.52975 2:0.537318 3:0.9102675 4:0.73258667 
8192 1:0.42975 2:0.537318 3:0.9102675 4:0.77690667 
-8192 1:0.22975 2:0.537318 3:0.9102675 4:0.93375333 
358.9862159013197 1:0.72975 2:0.537318 3:0.6602675 4:0.67556667 
-8192 1:0.42975 2:0.537318 3:0.660265 4:0.77674111 
-8192 1:0.329749 2:0.537319 3:0.660265 4:0.83959556 
8192 1:0.22975 2:0.537318 3:0.660265 4:0.93367778 
-8192 1:0.72975 2:0.537318 3:0.4102675 4:0.67557222 
8192 1:0.52975 2:0.537318 3:0.4102675 4:0.73264222 
-8192 1:0.429752 2:0.537316 3:0.41026 4:0.77675444 
-8192 1:0.32975 2:0.537319 3:0.410265 4:0.83955111 
630.1241935760373 1:0.22975 2:0.537318 3:0.410265 4:0.93332333 
-8192 1:0.62975 2:0.537318 3:0.160267 4:0.70022111 
-2819.077982091089 1:0.32975 2:0.537318 3:0.16026675 4:0.83923667 
-5722.957750634197 1:0.72975 2:0.437318 3:0.9102675 4:0.59651589 
-8192 1:0.62975 2:0.437318 3:0.9102675 4:0.61069122 
8192 1:0.52975 2:0.437318 3:0.9102675 4:0.62962333 
8192 1:0.42975 2:0.437318 3:0.9102675 4:0.65643778 
8192 1:0.329748 2:0.437338 3:0.9102425 4:0.69653778 
-8192 1:0.225581 2:0.461942 3:0.872585 4:0.81495667 
8192 1:0.72975 2:0.437318 3:0.6602675 4:0.59651278 
8192 1:0.62975 2:0.437318 3:0.6602675 4:0.61071744 
-8192 1:0.52975 2:0.437318 3:0.660265 4:0.62968556 
-8192 1:0.42975 2:0.437318 3:0.660265 4:0.65639111 
-8192 1:0.32975 2:0.437319 3:0.660265 4:0.69645889 
8192 1:0.22975 2:0.437318 3:0.6602675 4:0.76232444 
-8192 1:0.72975 2:0.437319 3:0.4102675 4:0.59651622 
8192 1:0.52975 2:0.437318 3:0.410265 4:0.62967111 
6650.315504897982 1:0.42975 2:0.437318 3:0.4102625 4:0.65636444 
8192 1:0.32975 2:0.437318 3:0.410265 4:0.69631444 
8192 1:0.72975 2:0.437318 3:0.160267 4:0.59649856 
-8192 1:0.62975 2:0.437318 3:0.16026675 4:0.61067278 
8192 1:0.52975 2:0.437318 3:0.1602665 4:0.62966778 
8192 1:0.42975 2:0.437318 3:0.16026575 4:0.65623444 
-8192 1:0.32975 2:0.437318 3:0.16026675 4:0.69594222 
8192 1:0.72975 2:0.3373183 3:0.9102675 4:0.51435533 
-8192 1:0.62975 2:0.3373182 3:0.9102675 4:0.51649256 
8192 1:0.52975 2:0.337318 3:0.9102675 4:0.51942578 
8192 1:0.72975 2:0.3373183 3:0.6602675 4:0.514355 
-5127.803259609927 1:0.62975 2:0.3373184 3:0.6602675 4:0.51650767 
-8192 1:0.52975 2:0.3373181 3:0.6602675 4:0.51939233 
-8192 1:0.42975 2:0.3373182 3:0.6602675 4:0.52353333 
-8192 1:0.32975 2:0.337318 3:0.6602675 4:0.52988078 
-8192 1:0.72975 2:0.3373188 3:0.41027 4:0.51435578 
8192 1:0.62975 2:0.3373183 3:0.4102675 4:0.51647578 
8192 1:0.52975 2:0.3373179 3:0.4102675 4:0.51942056 
8192 1:0.42975 2:0.3373178 3:0.410265 4:0.523544 
8192 1:0.32975 2:0.337318 3:0.4102675 4:0.52949344 
1098.582271635777 1:0.62975 2:0.3373181 3:0.160268 4:0.51650633 
2477.017760912703 1:0.52975 2:0.3373177 3:0.1602665 4:0.51940378 
8192 1:0.42975 2:0.3373178 3:0.16026575 4:0.52344867 
-8192 1:0.32975 2:0.3373181 3:0.160267 4:0.52899511 
-8192 1:0.72975 2:0.2373183 3:0.9102675 4:0.43171589 
622.4367292902417 1:0.62975 2:0.237317 3:0.910265 4:0.42158933 
-8192 1:0.52975 2:0.237318 3:0.9102675 4:0.40801044 
8192 1:0.451269 2:0.2723239 3:0.826345 4:0.43740022 
-8192 1:0.362489 2:0.30727471 3:0.7833925 4:0.47587144 
-8192 1:0.62975 2:0.2373182 3:0.6602675 4:0.42157189 
-5272.97452933281 1:0.52975 2:0.2373177 3:0.6602675 4:0.40794833 
-8192 1:0.433066 2:0.2430789 3:0.6542625 4:0.39670944 
8192 1:0.62975 2:0.2373183 3:0.4102675 4:0.42157856 
8192 1:0.52975 2:0.237318 3:0.4102675 4:0.40798978 
8192 1:0.432613 2:0.2422369 3:0.4058925 4:0.39550811 
-8192 1:0.72975 2:0.237318 3:0.160267 4:0.43170822 
-8192 1:0.62975 2:0.2373182 3:0.160269 4:0.42160467 
-8192 1:0.52975 2:0.237318 3:0.160267 4:0.40797567 
-4030.774557959217 1:0.43236 2:0.2444983 3:0.1573545 4:0.39828944 
-8192 1:0.354853 2:0.2755703 3:0.19282 4:0.41973022 
-8192 1:0.72975 2:0.137318 3:0.9102675 4:0.35131333 
8192 1:0.545978 2:0.165203 3:0.878815 4:0.33585889 
1787.364819201307 1:0.481727 2:0.2282014 3:0.7857625 4:0.38901322 
2614.133712324689 1:0.374864 2:0.30101419 3:0.7149325 4:0.47178744 
8192 1:0.72975 2:0.137318 3:0.6602675 4:0.35131889 
8192 1:0.473059 2:0.2102774 3:0.5452225 4:0.36452222 
8192 1:0.386409 2:0.222518 3:0.5292125 4:0.34582889 
8192 1:0.62975 2:0.137318 3:0.4102675 4:0.33006778 
-8192 1:0.470972 2:0.2150787 3:0.341515 4:0.37176333 
-8192 1:0.312589 2:0.143563 3:0.32529 4:0.16752556 
-8192 1:0.734762 2:0.15054 3:0.245155 4:0.36346778 
8192 1:0.62975 2:0.137318 3:0.160267 4:0.33006444 
-8192 1:0.544523 2:0.182162 3:0.1387645 4:0.35488778 
8192 1:0.323367 2:0.137295 3:0.1336885 4:0.16061444 
8192 1:0.751257 2:0.111379 3:0.8459575 4:0.33888333 
8192 1:0.396589 2:0.2863851 3:0.6817925 4:0.45213556 
284.2729019038673 1:0.734527 2:0.052096 3:0.650915 4:0.28829778 
-8192 1:0.64673 2:0.074348 3:0.642745 4:0.28262111 
-8192 1:0.437651 2:0.2143673 3:0.3608175 4:0.35845111 
-8192 1:0.65155 2:0.09192 3:0.385135 4:0.29990333 
-8192 1:0.577072 2:0.162884 3:0.327555 4:0.34589333 
8192 1:0.486526 2:0.2167905 3:0.3374525 4:0.37771778 
-5591.706778163024 1:0.228724 2:0.109859 3:0.224 4:0.0115 
7090.721118188313 1:0.737828 2:0.070231 3:0.402885 4:0.30348556 
8192 1:0.655273 2:0.103566 3:0.180716 4:0.31165111 
8192 1:0.571965 2:0.179944 3:0.0965495 4:0.36215333 
8192 1:0.490062 2:0.2224005 3:0.10156025 4:0.38621111 
2535.678135552142 1:0.776303 2:0.130177 3:0.7416375 4:0.35823222 
-8192 1:0.475229 2:0.208786 3:0.3493325 4:0.36546111 
-8192 1:0.683408 2:0.077283 3:0.352875 4:0.29837444 
-8192 1:0.604218 2:0.146531 3:0.29005 4:0.33749667 
-8192 1:0.526522 2:0.2003521 3:0.2430355 4:0.37149778 
8192 1:0.431208 2:0.191245 3:0.3474575 4:0.31983222 
8192 1:0.685932 2:0.082897 3:0.2525025 4:0.30368222 
-4575.910103994812 1:0.600145 2:0.159508 3:0.09882875 4:0.34906889 
-8192 1:0.639308 2:0.102151 3:0.5080525 4:0.30661111 
-8192 1:0.502561 2:0.2014241 3:0.359315 4:0.36554444 
8192 1:0.323222 2:0.100108 3:0.2543025 4:0.11296444 
8192 1:0.774685 2:0.118274 3:0.4912975 4:0.35027 
-8192 1:0.631246 2:0.127119 3:0.265125 4:0.32688111 
8192 1:0.548934 2:0.189734 3:0.20738125 4:0.36612 
8192 1:0.462491 2:0.2139481 3:0.286985 4:0.36509778 
8192 1:0.63119 2:0.134238 3:0.13259375 4:0.33344556 
-8192 1:0.475128 2:0.221651 3:0.10913475 4:0.37944667 
