svm_type epsilon_svr
kernel_type rbf
gamma 16
nr_class 2
total_sv 124
rho -19.9065
SV
35.15555374440083 1:0.62975 2:0.637318 3:0.9102675 4:0.78232111 
-18.478111551725 1:0.42975 2:0.637318 3:0.9102675 4:0.87939222 
12.03651583221259 1:0.32975 2:0.637318 3:0.9102675 4:0.95305444 
-7.937802617065977 1:0.22975 2:0.637318 3:0.9102675 4:1 
69.67655359787911 1:0.72975 2:0.637318 3:0.660265 4:0.74944778 
-105.6199281040223 1:0.62975 2:0.637318 3:0.6602625 4:0.78230778 
64.04111214285481 1:0.529751 2:0.637317 3:0.6602625 4:0.82435333 
8.070806953284416 1:0.32975 2:0.637318 3:0.6602675 4:0.95298222 
-22.02674047521466 1:0.22975 2:0.637318 3:0.660265 4:1 
21.79289858685451 1:0.72975 2:0.637318 3:0.4102675 4:0.74945778 
24.34679844576558 1:0.62975 2:0.637318 3:0.4102675 4:0.78231 
-74.39247071686695 1:0.52975 2:0.637318 3:0.4102675 4:0.82435 
85.47819286590001 1:0.42975 2:0.637318 3:0.410265 4:0.87932667 
-79.13433621498982 1:0.32975 2:0.637318 3:0.4102675 4:0.95300444 
25.08997097638154 1:0.22975 2:0.637319 3:0.4102675 4:1 
14.1609620281018 1:0.734553 2:0.629293 3:0.18982775 4:0.74201111 
-56.87483955911531 1:0.62975 2:0.637318 3:0.1602675 4:0.78232556 
169.2273717393564 1:0.52975 2:0.637318 3:0.1602675 4:0.82433778 
-192.6763790489568 1:0.42975 2:0.637319 3:0.1602675 4:0.87931556 
136.9379932049491 1:0.329751 2:0.63732 3:0.16026575 4:0.95287 
-74.10016412035216 1:0.229749 2:0.637321 3:0.1602955 4:1 
64.37286085739342 1:0.72975 2:0.537318 3:0.9102675 4:0.67557222 
-94.740650707627 1:0.62975 2:0.537318 3:0.9102675 4:0.70024556 
-3.524172385795457 1:0.52975 2:0.537318 3:0.9102675 4:0.73258667 
2.943462310566991 1:0.42975 2:0.537318 3:0.9102675 4:0.77690667 
-20.71471678258236 1:0.22975 2:0.537318 3:0.9102675 4:0.93375333 
-164.8107154655069 1:0.62975 2:0.537318 3:0.6602675 4:0.70021889 
382.9230564951535 1:0.52975 2:0.537318 3:0.6602675 4:0.73258889 
-395.0494585910403 1:0.42975 2:0.537318 3:0.660265 4:0.77674111 
120.3294239546832 1:0.329749 2:0.537319 3:0.660265 4:0.83959556 
-34.08887119352552 1:0.62975 2:0.537318 3:0.4102675 4:0.70025 
27.20446730409087 1:0.429752 2:0.537316 3:0.41026 4:0.77675444 
3.829347530778989 1:0.22975 2:0.537318 3:0.410265 4:0.93332333 
20.93326568070353 1:0.72975 2:0.537318 3:0.160267 4:0.67556444 
-84.48595765084686 1:0.52975 2:0.537318 3:0.16026675 4:0.73263 
72.75956944504651 1:0.42975 2:0.537318 3:0.1602665 4:0.77673222 
-3.052457546632454 1:0.32975 2:0.537318 3:0.16026675 4:0.83923667 
8.724469290609678 1:0.72975 2:0.437318 3:0.9102675 4:0.59651589 
-25.87997873106859 1:0.62975 2:0.437318 3:0.9102675 4:0.61069122 
-13.19338395483378 1:0.52975 2:0.437318 3:0.9102675 4:0.62962333 
90.924866204856 1:0.42975 2:0.437318 3:0.9102675 4:0.65643778 
-61.71675866669678 1:0.329748 2:0.437338 3:0.9102425 4:0.69653778 
28.3469609877646 1:0.225581 2:0.461942 3:0.872585 4:0.81495667 
36.05250860279173 1:0.72975 2:0.437318 3:0.6602675 4:0.59651278 
-135.754007390803 1:0.42975 2:0.437318 3:0.660265 4:0.65639111 
342.2415901954861 1:0.32975 2:0.437319 3:0.660265 4:0.69645889 
-136.3372596741436 1:0.22975 2:0.437318 3:0.6602675 4:0.76232444 
-4.520659208385778 1:0.72975 2:0.437319 3:0.4102675 4:0.59651622 
41.33805074134067 1:0.62975 2:0.437318 3:0.410265 4:0.61070078 
-46.31321470921493 1:0.32975 2:0.437318 3:0.410265 4:0.69631444 
-67.08433497993718 1:0.62975 2:0.437318 3:0.16026675 4:0.61067278 
173.100773274525 1:0.52975 2:0.437318 3:0.1602665 4:0.62966778 
-109.4916229013342 1:0.42975 2:0.437318 3:0.16026575 4:0.65623444 
-14.56569046738478 1:0.32975 2:0.437318 3:0.16026675 4:0.69594222 
31.58203921255429 1:0.52975 2:0.337318 3:0.9102675 4:0.51942578 
44.17780694748246 1:0.72975 2:0.3373183 3:0.6602675 4:0.514355 
-270.8831232196308 1:0.62975 2:0.3373184 3:0.6602675 4:0.51650767 
512 1:0.52975 2:0.3373181 3:0.6602675 4:0.51939233 
-512 1:0.42975 2:0.3373182 3:0.6602675 4:0.52353333 
-215.1525431601139 1:0.32975 2:0.337318 3:0.6602675 4:0.52988078 
44.73474020147054 1:0.72975 2:0.3373188 3:0.41027 4:0.51435578 
-198.8662079443733 1:0.52975 2:0.3373179 3:0.4102675 4:0.51942056 
172.3473469888431 1:0.42975 2:0.3373178 3:0.410265 4:0.523544 
37.26779529476546 1:0.72975 2:0.337318 3:0.160267 4:0.51435689 
-64.62452069947217 1:0.52975 2:0.3373177 3:0.1602665 4:0.51940378 
-36.7594612225979 1:0.42975 2:0.3373178 3:0.16026575 4:0.52344867 
159.4965295502951 1:0.32975 2:0.3373181 3:0.160267 4:0.52899511 
139.37727738998 1:0.72975 2:0.2373183 3:0.9102675 4:0.43171589 
-318.0505662346544 1:0.62975 2:0.237317 3:0.910265 4:0.42158933 
277.2288768331552 1:0.52975 2:0.237318 3:0.9102675 4:0.40801044 
-227.4264236253332 1:0.451269 2:0.2723239 3:0.826345 4:0.43740022 
-283.4496996727387 1:0.362489 2:0.30727471 3:0.7833925 4:0.47587144 
227.8276473557133 1:0.62975 2:0.2373182 3:0.6602675 4:0.42157189 
-512 1:0.52975 2:0.2373177 3:0.6602675 4:0.40794833 
-431.6618092666978 1:0.433066 2:0.2430789 3:0.6542625 4:0.39670944 
-193.8392679855274 1:0.62975 2:0.2373183 3:0.4102675 4:0.42157856 
512 1:0.52975 2:0.237318 3:0.4102675 4:0.40798978 
207.6420935900024 1:0.432613 2:0.2422369 3:0.4058925 4:0.39550811 
-117.9490061203522 1:0.72975 2:0.237318 3:0.160267 4:0.43170822 
279.4428539782394 1:0.62975 2:0.2373182 3:0.160269 4:0.42160467 
-251.8929902904066 1:0.52975 2:0.237318 3:0.160267 4:0.40797567 
512 1:0.43236 2:0.2444983 3:0.1573545 4:0.39828944 
-512 1:0.354853 2:0.2755703 3:0.19282 4:0.41973022 
67.58154177016762 1:0.72975 2:0.137318 3:0.9102675 4:0.35131333 
-136.1910643777461 1:0.545978 2:0.165203 3:0.878815 4:0.33585889 
240.5840369552141 1:0.481727 2:0.2282014 3:0.7857625 4:0.38901322 
512 1:0.374864 2:0.30101419 3:0.7149325 4:0.47178744 
-286.3743843434141 1:0.72975 2:0.137318 3:0.6602675 4:0.35131889 
512 1:0.62975 2:0.137318 3:0.6602675 4:0.33007 
195.1791336452869 1:0.473059 2:0.2102774 3:0.5452225 4:0.36452222 
-28.09037491839691 1:0.386409 2:0.222518 3:0.5292125 4:0.34582889 
512 1:0.62975 2:0.137318 3:0.4102675 4:0.33006778 
-512 1:0.470972 2:0.2150787 3:0.341515 4:0.37176333 
-28.59870356306758 1:0.734762 2:0.15054 3:0.245155 4:0.36346778 
301.0237112193732 1:0.62975 2:0.137318 3:0.160267 4:0.33006444 
-512 1:0.544523 2:0.182162 3:0.1387645 4:0.35488778 
512 1:0.461424 2:0.2235021 3:0.137535 4:0.37733667 
-2.744953475689329 1:0.323367 2:0.137295 3:0.1336885 4:0.16061444 
-35.83955916685434 1:0.751257 2:0.111379 3:0.8459575 4:0.33888333 
512 1:0.396589 2:0.2863851 3:0.6817925 4:0.45213556 
221.2781989762685 1:0.734527 2:0.052096 3:0.650915 4:0.28829778 
-279.4663315625986 1:0.64673 2:0.074348 3:0.642745 4:0.28262111 
-512 1:0.437651 2:0.2143673 3:0.3608175 4:0.35845111 
443.6518269436348 1:0.735554 2:0.059389 3:0.4226775 4:0.29437778 
-13.41433598626144 1:0.577072 2:0.162884 3:0.327555 4:0.34589333 
512 1:0.486526 2:0.2167905 3:0.3374525 4:0.37771778 
43.45162969877185 1:0.36098 2:0.124867 3:0.3138125 4:0.18280444 
46.00820792220784 1:0.228724 2:0.109859 3:0.224 4:0.0115 
-317.0235259561817 1:0.737828 2:0.070231 3:0.402885 4:0.30348556 
-172.0718455936642 1:0.655273 2:0.103566 3:0.180716 4:0.31165111 
-512 1:0.475229 2:0.208786 3:0.3493325 4:0.36546111 
-291.9338471863305 1:0.683408 2:0.077283 3:0.352875 4:0.29837444 
512 1:0.431208 2:0.191245 3:0.3474575 4:0.31983222 
204.1713524076823 1:0.685932 2:0.082897 3:0.2525025 4:0.30368222 
177.9866499677249 1:0.600145 2:0.159508 3:0.09882875 4:0.34906889 
-342.7338777098737 1:0.639308 2:0.102151 3:0.5080525 4:0.30661111 
-512 1:0.502561 2:0.2014241 3:0.359315 4:0.36554444 
-76.18126835364092 1:0.323222 2:0.100108 3:0.2543025 4:0.11296444 
-24.35386537131989 1:0.631246 2:0.127119 3:0.265125 4:0.32688111 
-107.2426685092179 1:0.548934 2:0.189734 3:0.20738125 4:0.36612 
512 1:0.462491 2:0.2139481 3:0.286985 4:0.36509778 
-59.32750200361603 1:0.63119 2:0.134238 3:0.13259375 4:0.33344556 
21.49202454385772 1:0.544898 2:0.197258 3:0.08013725 4:0.37298778 
-342.864313450982 1:0.475128 2:0.221651 3:0.10913475 4:0.37944667 
