svm_type epsilon_svr
kernel_type rbf
gamma 4
nr_class 2
total_sv 151
rho -14.6131
SV
3768.911180539377 1:0.62975 2:0.637318 3:0.9102675 4:0.78232111 
-4096 1:0.42975 2:0.637318 3:0.9102675 4:0.87939222 
4096 1:0.32975 2:0.637318 3:0.9102675 4:0.95305444 
-681.8072652955491 1:0.22975 2:0.637318 3:0.9102675 4:1 
-3864.781087076536 1:0.72975 2:0.637318 3:0.660265 4:0.74944778 
-1618.143120173821 1:0.62975 2:0.637318 3:0.6602625 4:0.78230778 
4096 1:0.529751 2:0.637317 3:0.6602625 4:0.82435333 
-1903.57172313421 1:0.42975 2:0.637318 3:0.6602675 4:0.87935667 
-1531.304961806055 1:0.32975 2:0.637318 3:0.6602675 4:0.95298222 
28.0321699906895 1:0.22975 2:0.637318 3:0.660265 4:1 
4096 1:0.72975 2:0.637318 3:0.4102675 4:0.74945778 
-1368.048446222809 1:0.62975 2:0.637318 3:0.4102675 4:0.78231 
-4096 1:0.52975 2:0.637318 3:0.4102675 4:0.82435 
4096 1:0.42975 2:0.637318 3:0.410265 4:0.87932667 
931.1515328596261 1:0.32975 2:0.637318 3:0.4102675 4:0.95300444 
-1185.146460394943 1:0.22975 2:0.637319 3:0.4102675 4:1 
-2794.866605888658 1:0.734553 2:0.629293 3:0.18982775 4:0.74201111 
4096 1:0.62975 2:0.637318 3:0.1602675 4:0.78232556 
-4096 1:0.52975 2:0.637318 3:0.1602675 4:0.82433778 
3219.4237089213 1:0.42975 2:0.637319 3:0.1602675 4:0.87931556 
-4096 1:0.329751 2:0.63732 3:0.16026575 4:0.95287 
1952.481949257709 1:0.229749 2:0.637321 3:0.1602955 4:1 
-150.4384702450805 1:0.72975 2:0.537318 3:0.9102675 4:0.67557222 
-4096 1:0.62975 2:0.537318 3:0.9102675 4:0.70024556 
-3785.983799295464 1:0.52975 2:0.537318 3:0.9102675 4:0.73258667 
4096 1:0.42975 2:0.537318 3:0.9102675 4:0.77690667 
-4096 1:0.32975 2:0.537318 3:0.9102675 4:0.83965889 
1381.229357109513 1:0.22975 2:0.537318 3:0.9102675 4:0.93375333 
2684.744732673479 1:0.72975 2:0.537318 3:0.6602675 4:0.67556667 
4096 1:0.62975 2:0.537318 3:0.6602675 4:0.70021889 
2939.240788600964 1:0.52975 2:0.537318 3:0.6602675 4:0.73258889 
-4096 1:0.42975 2:0.537318 3:0.660265 4:0.77674111 
4096 1:0.329749 2:0.537319 3:0.660265 4:0.83959556 
97.29944264713993 1:0.22975 2:0.537318 3:0.660265 4:0.93367778 
97.94676415088145 1:0.72975 2:0.537318 3:0.4102675 4:0.67557222 
-4096 1:0.62975 2:0.537318 3:0.4102675 4:0.70025 
-275.0849885321692 1:0.52975 2:0.537318 3:0.4102675 4:0.73264222 
4096 1:0.429752 2:0.537316 3:0.41026 4:0.77675444 
-4096 1:0.32975 2:0.537319 3:0.410265 4:0.83955111 
871.0141598691225 1:0.22975 2:0.537318 3:0.410265 4:0.93332333 
-2561.422447516719 1:0.72975 2:0.537318 3:0.160267 4:0.67556444 
4096 1:0.62975 2:0.537318 3:0.160267 4:0.70022111 
-2593.884030200274 1:0.52975 2:0.537318 3:0.16026675 4:0.73263 
4096 1:0.42975 2:0.537318 3:0.1602665 4:0.77673222 
-220.8972794230323 1:0.32975 2:0.537318 3:0.16026675 4:0.83923667 
4096 1:0.72975 2:0.437318 3:0.9102675 4:0.59651589 
-4096 1:0.62975 2:0.437318 3:0.9102675 4:0.61069122 
4096 1:0.52975 2:0.437318 3:0.9102675 4:0.62962333 
4096 1:0.42975 2:0.437318 3:0.9102675 4:0.65643778 
3340.946998718653 1:0.329748 2:0.437338 3:0.9102425 4:0.69653778 
-4009.059253888635 1:0.225581 2:0.461942 3:0.872585 4:0.81495667 
-4096 1:0.72975 2:0.437318 3:0.6602675 4:0.59651278 
4096 1:0.62975 2:0.437318 3:0.6602675 4:0.61071744 
-4096 1:0.52975 2:0.437318 3:0.660265 4:0.62968556 
-4096 1:0.42975 2:0.437318 3:0.660265 4:0.65639111 
-3508.255643282914 1:0.32975 2:0.437319 3:0.660265 4:0.69645889 
4096 1:0.22975 2:0.437318 3:0.6602675 4:0.76232444 
1407.436385502523 1:0.72975 2:0.437319 3:0.4102675 4:0.59651622 
-2863.335852912684 1:0.62975 2:0.437318 3:0.410265 4:0.61070078 
4096 1:0.52975 2:0.437318 3:0.410265 4:0.62967111 
2678.369662889873 1:0.42975 2:0.437318 3:0.4102625 4:0.65636444 
-4096 1:0.32975 2:0.437318 3:0.410265 4:0.69631444 
3943.627254922539 1:0.72975 2:0.437318 3:0.160267 4:0.59649856 
1800.490501576508 1:0.62975 2:0.437318 3:0.16026675 4:0.61067278 
-4096 1:0.52975 2:0.437318 3:0.1602665 4:0.62966778 
-4096 1:0.42975 2:0.437318 3:0.16026575 4:0.65623444 
369.6741018445927 1:0.32975 2:0.437318 3:0.16026675 4:0.69594222 
1840.473437367807 1:0.72975 2:0.3373183 3:0.9102675 4:0.51435533 
-4096 1:0.62975 2:0.3373182 3:0.9102675 4:0.51649256 
-3997.82081909614 1:0.52975 2:0.337318 3:0.9102675 4:0.51942578 
-4096 1:0.72975 2:0.3373183 3:0.6602675 4:0.514355 
3164.99028939038 1:0.62975 2:0.3373184 3:0.6602675 4:0.51650767 
1126.570718364769 1:0.52975 2:0.3373181 3:0.6602675 4:0.51939233 
4096 1:0.42975 2:0.3373182 3:0.6602675 4:0.52353333 
3000.834628861751 1:0.32975 2:0.337318 3:0.6602675 4:0.52988078 
3332.70141629945 1:0.72975 2:0.3373188 3:0.41027 4:0.51435578 
-4096 1:0.62975 2:0.3373183 3:0.4102675 4:0.51647578 
-3245.963570528609 1:0.52975 2:0.3373179 3:0.4102675 4:0.51942056 
4096 1:0.42975 2:0.3373178 3:0.410265 4:0.523544 
1145.161973057338 1:0.32975 2:0.337318 3:0.4102675 4:0.52949344 
-4096 1:0.72975 2:0.337318 3:0.160267 4:0.51435689 
-4096 1:0.62975 2:0.3373181 3:0.160268 4:0.51650633 
3535.863690164965 1:0.52975 2:0.3373177 3:0.1602665 4:0.51940378 
4096 1:0.42975 2:0.3373178 3:0.16026575 4:0.52344867 
1583.156804886552 1:0.32975 2:0.3373181 3:0.160267 4:0.52899511 
2036.898236399619 1:0.72975 2:0.2373183 3:0.9102675 4:0.43171589 
-2226.558708254131 1:0.62975 2:0.237317 3:0.910265 4:0.42158933 
4096 1:0.52975 2:0.237318 3:0.9102675 4:0.40801044 
4096 1:0.451269 2:0.2723239 3:0.826345 4:0.43740022 
-3964.262493981319 1:0.362489 2:0.30727471 3:0.7833925 4:0.47587144 
4096 1:0.62975 2:0.2373182 3:0.6602675 4:0.42157189 
75.52977931773728 1:0.52975 2:0.2373177 3:0.6602675 4:0.40794833 
4096 1:0.433066 2:0.2430789 3:0.6542625 4:0.39670944 
-845.8309293012644 1:0.62975 2:0.2373183 3:0.4102675 4:0.42157856 
4096 1:0.52975 2:0.237318 3:0.4102675 4:0.40798978 
-4096 1:0.432613 2:0.2422369 3:0.4058925 4:0.39550811 
2386.44703181064 1:0.72975 2:0.237318 3:0.160267 4:0.43170822 
4096 1:0.62975 2:0.2373182 3:0.160269 4:0.42160467 
4096 1:0.52975 2:0.237318 3:0.160267 4:0.40797567 
-3508.636378678782 1:0.43236 2:0.2444983 3:0.1573545 4:0.39828944 
-4096 1:0.354853 2:0.2755703 3:0.19282 4:0.41973022 
-182.8736122917205 1:0.72975 2:0.137318 3:0.9102675 4:0.35131333 
-1707.323278785788 1:0.545978 2:0.165203 3:0.878815 4:0.33585889 
-679.5121896113584 1:0.481727 2:0.2282014 3:0.7857625 4:0.38901322 
-4096 1:0.374864 2:0.30101419 3:0.7149325 4:0.47178744 
4096 1:0.72975 2:0.137318 3:0.6602675 4:0.35131889 
-4096 1:0.62975 2:0.137318 3:0.6602675 4:0.33007 
-4096 1:0.473059 2:0.2102774 3:0.5452225 4:0.36452222 
3843.047069372676 1:0.386409 2:0.222518 3:0.5292125 4:0.34582889 
4096 1:0.62975 2:0.137318 3:0.4102675 4:0.33006778 
-4096 1:0.470972 2:0.2150787 3:0.341515 4:0.37176333 
-1421.96134478894 1:0.312589 2:0.143563 3:0.32529 4:0.16752556 
-4043.547051278558 1:0.734762 2:0.15054 3:0.245155 4:0.36346778 
554.7098541334749 1:0.62975 2:0.137318 3:0.160267 4:0.33006444 
-4096 1:0.544523 2:0.182162 3:0.1387645 4:0.35488778 
4096 1:0.461424 2:0.2235021 3:0.137535 4:0.37733667 
1431.467699357603 1:0.323367 2:0.137295 3:0.1336885 4:0.16061444 
616.8323389400854 1:0.751257 2:0.111379 3:0.8459575 4:0.33888333 
-4096 1:0.396589 2:0.2863851 3:0.6817925 4:0.45213556 
1077.444177266421 1:0.734527 2:0.052096 3:0.650915 4:0.28829778 
2479.650106738375 1:0.64673 2:0.074348 3:0.642745 4:0.28262111 
-4096 1:0.437651 2:0.2143673 3:0.3608175 4:0.35845111 
-4096 1:0.735554 2:0.059389 3:0.4226775 4:0.29437778 
-4096 1:0.65155 2:0.09192 3:0.385135 4:0.29990333 
1320.828252304424 1:0.577072 2:0.162884 3:0.327555 4:0.34589333 
-4096 1:0.486526 2:0.2167905 3:0.3374525 4:0.37771778 
4096 1:0.36098 2:0.124867 3:0.3138125 4:0.18280444 
293.0363887863314 1:0.228724 2:0.109859 3:0.224 4:0.0115 
2316.808362873778 1:0.737828 2:0.070231 3:0.402885 4:0.30348556 
-4096 1:0.655273 2:0.103566 3:0.180716 4:0.31165111 
-1305.230777311137 1:0.571965 2:0.179944 3:0.0965495 4:0.36215333 
-4096 1:0.490062 2:0.2224005 3:0.10156025 4:0.38621111 
-4096 1:0.776303 2:0.130177 3:0.7416375 4:0.35823222 
3107.162873412922 1:0.475229 2:0.208786 3:0.3493325 4:0.36546111 
4096 1:0.683408 2:0.077283 3:0.352875 4:0.29837444 
4096 1:0.604218 2:0.146531 3:0.29005 4:0.33749667 
4096 1:0.526522 2:0.2003521 3:0.2430355 4:0.37149778 
4096 1:0.431208 2:0.191245 3:0.3474575 4:0.31983222 
4096 1:0.685932 2:0.082897 3:0.2525025 4:0.30368222 
4096 1:0.600145 2:0.159508 3:0.09882875 4:0.34906889 
-4096 1:0.517614 2:0.2116189 3:0.0859675 4:0.38151778 
-4096 1:0.639308 2:0.102151 3:0.5080525 4:0.30661111 
-4096 1:0.502561 2:0.2014241 3:0.359315 4:0.36554444 
-3028.954606918662 1:0.323222 2:0.100108 3:0.2543025 4:0.11296444 
861.8709950881292 1:0.774685 2:0.118274 3:0.4912975 4:0.35027 
-4096 1:0.631246 2:0.127119 3:0.265125 4:0.32688111 
-4096 1:0.548934 2:0.189734 3:0.20738125 4:0.36612 
4096 1:0.462491 2:0.2139481 3:0.286985 4:0.36509778 
763.6801364881075 1:0.63119 2:0.134238 3:0.13259375 4:0.33344556 
-140.6797566418609 1:0.544898 2:0.197258 3:0.08013725 4:0.37298778 
4096 1:0.475128 2:0.221651 3:0.10913475 4:0.37944667 
