svm_type epsilon_svr
kernel_type rbf
gamma 4
nr_class 2
total_sv 151
rho -475.494
SV
-10.36503799332995 1:0.62975 2:0.637318 3:0.9102675 4:0.78232111 
128 1:0.42975 2:0.637318 3:0.9102675 4:0.87939222 
-128 1:0.32975 2:0.637318 3:0.9102675 4:0.95305444 
-14.96158809512675 1:0.22975 2:0.637318 3:0.9102675 4:1 
128 1:0.72975 2:0.637318 3:0.660265 4:0.74944778 
-128 1:0.62975 2:0.637318 3:0.6602625 4:0.78230778 
128 1:0.529751 2:0.637317 3:0.6602625 4:0.82435333 
-128 1:0.42975 2:0.637318 3:0.6602675 4:0.87935667 
54.64692836164174 1:0.32975 2:0.637318 3:0.6602675 4:0.95298222 
-128 1:0.22975 2:0.637318 3:0.660265 4:1 
-128 1:0.72975 2:0.637318 3:0.4102675 4:0.74945778 
-111.4291320654991 1:0.62975 2:0.637318 3:0.4102675 4:0.78231 
128 1:0.52975 2:0.637318 3:0.4102675 4:0.82435 
128 1:0.42975 2:0.637318 3:0.410265 4:0.87932667 
128 1:0.32975 2:0.637318 3:0.4102675 4:0.95300444 
-128 1:0.22975 2:0.637319 3:0.4102675 4:1 
85.0129832495722 1:0.734553 2:0.629293 3:0.18982775 4:0.74201111 
-128 1:0.62975 2:0.637318 3:0.1602675 4:0.78232556 
128 1:0.52975 2:0.637318 3:0.1602675 4:0.82433778 
128 1:0.42975 2:0.637319 3:0.1602675 4:0.87931556 
-124.2452129557278 1:0.329751 2:0.63732 3:0.16026575 4:0.95287 
-128 1:0.229749 2:0.637321 3:0.1602955 4:1 
-128 1:0.72975 2:0.537318 3:0.9102675 4:0.67557222 
128 1:0.62975 2:0.537318 3:0.9102675 4:0.70024556 
128 1:0.52975 2:0.537318 3:0.9102675 4:0.73258667 
-128 1:0.42975 2:0.537318 3:0.9102675 4:0.77690667 
128 1:0.32975 2:0.537318 3:0.9102675 4:0.83965889 
-128 1:0.22975 2:0.537318 3:0.9102675 4:0.93375333 
85.7969148661725 1:0.72975 2:0.537318 3:0.6602675 4:0.67556667 
128 1:0.62975 2:0.537318 3:0.6602675 4:0.70021889 
115.8027438169752 1:0.52975 2:0.537318 3:0.6602675 4:0.73258889 
-128 1:0.42975 2:0.537318 3:0.660265 4:0.77674111 
128 1:0.329749 2:0.537319 3:0.660265 4:0.83959556 
-128 1:0.22975 2:0.537318 3:0.660265 4:0.93367778 
128 1:0.72975 2:0.537318 3:0.4102675 4:0.67557222 
-128 1:0.62975 2:0.537318 3:0.4102675 4:0.70025 
-128 1:0.52975 2:0.537318 3:0.4102675 4:0.73264222 
-105.0100502766464 1:0.429752 2:0.537316 3:0.41026 4:0.77675444 
128 1:0.32975 2:0.537319 3:0.410265 4:0.83955111 
20.59511460890292 1:0.22975 2:0.537318 3:0.410265 4:0.93332333 
128 1:0.72975 2:0.537318 3:0.160267 4:0.67556444 
128 1:0.62975 2:0.537318 3:0.160267 4:0.70022111 
128 1:0.52975 2:0.537318 3:0.16026675 4:0.73263 
-128 1:0.42975 2:0.537318 3:0.1602665 4:0.77673222 
-128 1:0.32975 2:0.537318 3:0.16026675 4:0.83923667 
128 1:0.72975 2:0.437318 3:0.9102675 4:0.59651589 
-128 1:0.62975 2:0.437318 3:0.9102675 4:0.61069122 
-128 1:0.52975 2:0.437318 3:0.9102675 4:0.62962333 
128 1:0.42975 2:0.437318 3:0.9102675 4:0.65643778 
-128 1:0.329748 2:0.437338 3:0.9102425 4:0.69653778 
-64.27636477808407 1:0.225581 2:0.461942 3:0.872585 4:0.81495667 
-128 1:0.72975 2:0.437318 3:0.6602675 4:0.59651278 
128 1:0.62975 2:0.437318 3:0.6602675 4:0.61071744 
-128 1:0.52975 2:0.437318 3:0.660265 4:0.62968556 
-128 1:0.42975 2:0.437318 3:0.660265 4:0.65639111 
128 1:0.32975 2:0.437319 3:0.660265 4:0.69645889 
128 1:0.22975 2:0.437318 3:0.6602675 4:0.76232444 
104.1230083961937 1:0.72975 2:0.437319 3:0.4102675 4:0.59651622 
-117.0634856727612 1:0.62975 2:0.437318 3:0.410265 4:0.61070078 
-128 1:0.52975 2:0.437318 3:0.410265 4:0.62967111 
-128 1:0.42975 2:0.437318 3:0.4102625 4:0.65636444 
64.86575284189632 1:0.32975 2:0.437318 3:0.410265 4:0.69631444 
128 1:0.72975 2:0.437318 3:0.160267 4:0.59649856 
128 1:0.62975 2:0.437318 3:0.16026675 4:0.61067278 
-128 1:0.52975 2:0.437318 3:0.1602665 4:0.62966778 
-128 1:0.42975 2:0.437318 3:0.16026575 4:0.65623444 
128 1:0.32975 2:0.437318 3:0.16026675 4:0.69594222 
128 1:0.72975 2:0.3373183 3:0.9102675 4:0.51435533 
-128 1:0.62975 2:0.3373182 3:0.9102675 4:0.51649256 
128 1:0.52975 2:0.337318 3:0.9102675 4:0.51942578 
-128 1:0.72975 2:0.3373183 3:0.6602675 4:0.514355 
128 1:0.62975 2:0.3373184 3:0.6602675 4:0.51650767 
128 1:0.52975 2:0.3373181 3:0.6602675 4:0.51939233 
128 1:0.42975 2:0.3373182 3:0.6602675 4:0.52353333 
-128 1:0.32975 2:0.337318 3:0.6602675 4:0.52988078 
-128 1:0.72975 2:0.3373188 3:0.41027 4:0.51435578 
128 1:0.62975 2:0.3373183 3:0.4102675 4:0.51647578 
128 1:0.52975 2:0.3373179 3:0.4102675 4:0.51942056 
-128 1:0.42975 2:0.3373178 3:0.410265 4:0.523544 
128 1:0.32975 2:0.337318 3:0.4102675 4:0.52949344 
-128 1:0.72975 2:0.337318 3:0.160267 4:0.51435689 
119.5887657281053 1:0.62975 2:0.3373181 3:0.160268 4:0.51650633 
-128 1:0.52975 2:0.3373177 3:0.1602665 4:0.51940378 
-128 1:0.42975 2:0.3373178 3:0.16026575 4:0.52344867 
128 1:0.32975 2:0.3373181 3:0.160267 4:0.52899511 
128 1:0.72975 2:0.2373183 3:0.9102675 4:0.43171589 
-128 1:0.62975 2:0.237317 3:0.910265 4:0.42158933 
128 1:0.52975 2:0.237318 3:0.9102675 4:0.40801044 
-128 1:0.451269 2:0.2723239 3:0.826345 4:0.43740022 
-128 1:0.362489 2:0.30727471 3:0.7833925 4:0.47587144 
-128 1:0.62975 2:0.2373182 3:0.6602675 4:0.42157189 
128 1:0.52975 2:0.2373177 3:0.6602675 4:0.40794833 
-128 1:0.433066 2:0.2430789 3:0.6542625 4:0.39670944 
128 1:0.62975 2:0.2373183 3:0.4102675 4:0.42157856 
128 1:0.52975 2:0.237318 3:0.4102675 4:0.40798978 
128 1:0.432613 2:0.2422369 3:0.4058925 4:0.39550811 
128 1:0.72975 2:0.237318 3:0.160267 4:0.43170822 
-128 1:0.62975 2:0.2373182 3:0.160269 4:0.42160467 
-128 1:0.52975 2:0.237318 3:0.160267 4:0.40797567 
-128 1:0.43236 2:0.2444983 3:0.1573545 4:0.39828944 
128 1:0.354853 2:0.2755703 3:0.19282 4:0.41973022 
128 1:0.72975 2:0.137318 3:0.9102675 4:0.35131333 
-128 1:0.545978 2:0.165203 3:0.878815 4:0.33585889 
-128 1:0.481727 2:0.2282014 3:0.7857625 4:0.38901322 
128 1:0.374864 2:0.30101419 3:0.7149325 4:0.47178744 
-128 1:0.72975 2:0.137318 3:0.6602675 4:0.35131889 
128 1:0.62975 2:0.137318 3:0.6602675 4:0.33007 
-128 1:0.473059 2:0.2102774 3:0.5452225 4:0.36452222 
128 1:0.386409 2:0.222518 3:0.5292125 4:0.34582889 
128 1:0.62975 2:0.137318 3:0.4102675 4:0.33006778 
-128 1:0.470972 2:0.2150787 3:0.341515 4:0.37176333 
-128 1:0.312589 2:0.143563 3:0.32529 4:0.16752556 
-128 1:0.734762 2:0.15054 3:0.245155 4:0.36346778 
128 1:0.62975 2:0.137318 3:0.160267 4:0.33006444 
128 1:0.544523 2:0.182162 3:0.1387645 4:0.35488778 
-128 1:0.461424 2:0.2235021 3:0.137535 4:0.37733667 
128 1:0.323367 2:0.137295 3:0.1336885 4:0.16061444 
128 1:0.751257 2:0.111379 3:0.8459575 4:0.33888333 
-128 1:0.396589 2:0.2863851 3:0.6817925 4:0.45213556 
-30.42036054347934 1:0.734527 2:0.052096 3:0.650915 4:0.28829778 
128 1:0.64673 2:0.074348 3:0.642745 4:0.28262111 
128 1:0.437651 2:0.2143673 3:0.3608175 4:0.35845111 
-128 1:0.735554 2:0.059389 3:0.4226775 4:0.29437778 
128 1:0.65155 2:0.09192 3:0.385135 4:0.29990333 
128 1:0.577072 2:0.162884 3:0.327555 4:0.34589333 
-92.50468357597619 1:0.486526 2:0.2167905 3:0.3374525 4:0.37771778 
-128 1:0.36098 2:0.124867 3:0.3138125 4:0.18280444 
-128 1:0.228724 2:0.109859 3:0.224 4:0.0115 
-43.26271547388488 1:0.737828 2:0.070231 3:0.402885 4:0.30348556 
128 1:0.655273 2:0.103566 3:0.180716 4:0.31165111 
-128 1:0.571965 2:0.179944 3:0.0965495 4:0.36215333 
100.9143300050349 1:0.490062 2:0.2224005 3:0.10156025 4:0.38621111 
71.19825755263128 1:0.776303 2:0.130177 3:0.7416375 4:0.35823222 
-128 1:0.475229 2:0.208786 3:0.3493325 4:0.36546111 
128 1:0.683408 2:0.077283 3:0.352875 4:0.29837444 
128 1:0.604218 2:0.146531 3:0.29005 4:0.33749667 
-128 1:0.526522 2:0.2003521 3:0.2430355 4:0.37149778 
128 1:0.431208 2:0.191245 3:0.3474575 4:0.31983222 
128 1:0.685932 2:0.082897 3:0.2525025 4:0.30368222 
-128 1:0.600145 2:0.159508 3:0.09882875 4:0.34906889 
128 1:0.517614 2:0.2116189 3:0.0859675 4:0.38151778 
-111.0947658696104 1:0.639308 2:0.102151 3:0.5080525 4:0.30661111 
-128 1:0.502561 2:0.2014241 3:0.359315 4:0.36554444 
-125.9114021269998 1:0.323222 2:0.100108 3:0.2543025 4:0.11296444 
-128 1:0.774685 2:0.118274 3:0.4912975 4:0.35027 
128 1:0.631246 2:0.127119 3:0.265125 4:0.32688111 
-128 1:0.548934 2:0.189734 3:0.20738125 4:0.36612 
-128 1:0.462491 2:0.2139481 3:0.286985 4:0.36509778 
128 1:0.63119 2:0.134238 3:0.13259375 4:0.33344556 
128 1:0.544898 2:0.197258 3:0.08013725 4:0.37298778 
-128 1:0.475128 2:0.221651 3:0.10913475 4:0.37944667 
